-1.2607
-1.4375
1.1848
1.256
1.2208
1.1467
-1.0806
-1.0831
-0.90132
0.83947
0.46455
0.63735
-0.63549
0.43353
0.53932
-0.34671
0.36096
0.17633
-0.095746
0.12521
-0.0033451
0.2154
0.1943
-0.16208
-0.3279
0.36484
0.57928
-0.56564
0.64359
-0.70475
0.96774
-1.0743
-0.9021
1.0666
-1.1843
-1.0911
1.3188
-1.3453
-1.2891
-1.4273
0.38891
-0.092344
0.1347
0.11019
-1.4658
-0.019934
0.21622
1.1548
0.045159
-0.048541
-0.55071
-0.10987
0.50292
-0.07544
-1.9917
0.011791
-0.2582
0.0014963
0.2356
0.033085
0.1974
-0.10714
-0.0056999
0.74652
0.0005944
-0.018016
0.07102
0.73265
0.062537
-0.0043474
0.26767
-0.66656
-0.015429
0.11234
-1.2571
-0.026713
0.3944
-0.058331
0.15833
0.041035
0.66209
-0.1367
0.11864
-0.27195
0.45023
0.084369
0.081037
1.6661
-0.011475
-2.7924
-0.5303
-0.11797
-0.63401
0.42085
-1.0842
0.0013485
0.057322
-0.00059183
0.40888
0.074773
0.13508
-0.10911
-0.061246
0.71277
-0.0012078
0.0058212
-0.13292
-1.6575
0.070877
0.0040344
0.30569
1.381
-0.033799
-0.032321
2.6324
-0.06301
0.031141
-0.064934
0.12666
0.037548
0.31936
-0.041051
0.15466
-0.099388
0.33609
-0.0094993
0.20767
-1.7327
0.15332
1.5558
1.6237
-0.10063
0.42124
-0.25776
1.9692
0.010106
-0.11927
0.026917
1.5478
0.0878
0.057696
-0.047908
-0.014916
0.84266
-0.0068458
-0.013156
-0.15794
2.7155
0.085741
0.013129
0.36199
-0.37575
-0.020842
0.022444
-0.74053
-0.039453
-0.14482
-0.089993
-1.1167
0.041172
-1.3927
-0.13961
0.12246
0.13525
0.27963
0.10615
0.15864
-0.76674
0.00015241
0.90299
-0.63291
-0.10919
0.17653
0.19632
0.66348
0.019832
-0.13543
-0.0019658
-2.1112
0.013154
0.12845
-0.063696
-0.032168
-2.7419
-0.0093585
-0.0094727
0.11724
-1.6022
0.099444
-0.00367
-1.3147
-0.20368
-0.031592
-0.018464
-0.92539
-0.0153
-0.094712
-0.037786
0.19049
0.043868
-0.20053
0.0078305
0.49065
-0.72712
-0.0027828
0.10722
-0.068102
0.1689
-0.14644
-0.12399
0.085048
-0.15817
-1.2949
-0.066736
-0.033216
0.23376
-0.27123
0.14282
0.42095
0.63239
0.084521
-0.2185
0.084175
-0.24038
0.19456
0.29918
-0.32149
-0.13023
-0.24147
-0.15975
-0.091027
-0.10104
0.5568
-0.30204
-0.31192
0.72407
0.25541
-0.032445
-0.26215
0.4698
-0.24908
0.2487
-0.02259
0.16714
-0.037439
0.078907
-0.16265
0.45387
0.21925
0.43013
0.03697
-0.19962
1.1577
-0.19021
-0.22192
-0.39783
0.020892
0.23829
0.45694
0.57997
-0.12055
-0.25422
-0.19736
-0.050536
0.18933
-0.26596
-0.080181
-0.63163
0.60983
-0.13997
-0.074161
-0.07618
0.40934
-0.040095
-0.073057
-0.61106
0.056198
-0.13991
0.52459
-0.08294
0.031506
0.074691
-0.55097
0.49925
-0.02486
-0.022805
-0.9693
0.29784
-0.077202
0.27945
0.10911
-0.31093
-0.35748
0.17349
-0.20001
0.035808
0.10132
-0.16712
-0.86718
-2.6144
0.29634
0.14947
0.35814
0.10804
0.1619
0.33005
-0.098726
-0.2415
-0.15228
0.087704
-0.15674
0.10846
0.14326
0.5465
0.16247
-0.56167
-0.8663
-0.88479
-0.31235
-0.23812
-0.34592
0.069359
0.26242
-0.24639
-0.024808
0.12153
0.035935
0.24905
0.095225
-0.50115
0.17016
0.51455
0.70215
0.020337
0.061498
0.31779
0.053103
-0.52761
-0.06384
0.44465
0.087651
-0.12704
-0.083595
-0.031029
0.11907
0.30594
0.15503
0.093343
0.44468
-0.25735
0.060599
0.060589
0.18274
-0.22038
-0.05807
-0.60473
0.18556
-0.16658
-0.23156
-0.21231
-0.4507
-0.27263
0.40998
0.54341
-0.7059
0.096313
-0.051696
0.36062
-0.15224
0.11776
0.23737
0.094538
1.3175
-0.23153
-0.22542
-0.044207
-0.016662
0.23672
-0.90563
0.31739
0.33317
0.27266
-0.12015
-0.32149
0.11951
0.32782
-0.10095
0.058934
-0.24727
0.23796
-0.13041
0.24698
0.0057968
-0.18066
0.40721
-0.67309
-0.77101
3.8389
-0.21356
-0.16939
-0.35724
0.29664
-0.15423
0.35761
-0.49771
-0.0089881
-0.27779
0.32607
-0.13667
0.48037
0.1984
-0.10184
0.94106
0.50367
-0.21974
0.20654
-0.043091
0.29868
-0.44901
0.52766
-0.090679
-0.10908
-0.23834
-0.048123
-0.43066
0.27385
0.017154
0.079356
0.60738
0.29111
-0.039903
0.21561
-0.14956
0.038859
0.21599
0.70034
-0.41614
-0.36055
0.23919
-0.1896
-0.27112
0.19285
-0.34014
-0.42487
-0.18048
0.11156
-0.084571
0.10046
0.091469
-0.28773
0.096443
-0.17196
0.78169
-0.17407
-0.31298
-0.38916
-0.26926
-0.28669
0.055959
1.3319
0.23268
-0.11481
-0.23673
-0.19351
-0.40809
0.17996
0.034981
0.028496
-0.30554
-0.25047
-0.14387
0.26118
-0.22351
-0.17606
-0.061653
-0.6404
0.39358
-0.26652
0.16535
0.2971
-0.23133
0.28421
0.20185
0.24408
-0.057801
-0.10676
-0.19197
0.0097098
0.15284
-0.23829
0.10003
0.36733
-0.38796
-0.25585
-0.038505
-0.39439
-0.11576
0.1681
0.22424
-0.24525
0.21344
-0.23247
0.35124
0.10491
0.16068
0.0034809
-0.15898
-0.3789
-0.19412
-0.30846
-0.24042
0.16092
-0.27012
-0.35504
0.085179
0.67507
-1.0846
-0.23633
0.26519
-0.24204
0.11597
-0.18488
0.055806
-0.27012
-0.023765
0.072678
-0.1561
-0.17286
-0.050123
0.14215
0.20436
-0.20144
-0.16218
0.059549
0.010908
0.1684
-0.11486
0.090113
-0.015347
0.32653
-0.37696
0.39062
0.44899
0.16037
0.26098
-0.12408
-0.2907
-0.30721
0.67955
0.044296
-0.40968
0.16103
-0.35304
-0.17638
0.12501
-0.626
0.42252
-0.13855
-0.29142
0.36883
-0.23963
0.25251
0.58707
-0.47634
-0.41128
-0.24598
-0.16368
0.16066
0.20289
-0.29232
0.21711
-0.18818
-0.05044
-0.18032
0.068817
0.12025
-0.087904
-0.53513
0.14473
0.61144
0.0061738
-0.10936
-0.23871
0.071327
0.22927
-0.3491
-0.019074
-0.27575
-0.34196
0.48484
-0.26658
0.19063
-0.13534
-0.05003
-0.1341
0.64786
0.30016
-0.13031
-0.24146
-0.21902
-0.36885
0.12668
0.065917
-0.0020662
0.059579
-0.17581
0.0054326
0.74364
-0.15964
-0.54387
0.2523
0.15618
-0.70526
0.28615
-0.49699
0.23043
-0.045921
0.25349
0.33642
-4.4256
-0.55584
-0.49343
-0.23302
-0.66644
0.21086
-0.064591
0.1009
0.80143
-0.23834
0.011637
-0.24482
0.26555
-0.19134
-0.11675
0.40169
-0.66785
0.22659
-0.35688
-0.18704
0.05752
-0.27099
-0.63338
-0.092623
0.35995
0.057345
-0.16013
3.3702
0.36461
0.27696
-0.43683
0.25372
0.039877
0.0072296
-0.15008
-0.1263
0.29207
0.055317
0.12844
-0.40666
0.01044
0.078877
0.39701
-0.23084
-0.13754
0.038218
-0.092903
-0.27068
0.83095
-0.20952
-0.23488
-0.18242
0.3367
-0.14498
0.3615
0.39923
0.39279
0.3101
-0.61881
-0.32927
-0.20016
0.22845
0.030954
0.36629
-0.12359
0.29815
-0.21928
-0.18913
0.058628
0.22956
0.046724
0.13954
-0.037415
-1.0515
-0.16053
-0.014793
0.36358
0.13217
0.15337
0.83636
0.59822
0.76816
0.055028
0.39495
-0.037208
-0.43084
-0.47186
-0.056712
0.22668
-0.33062
-0.088422
-0.27688
0.15939
0.11196
0.043422
0.19128
-0.687
-0.082753
-0.11684
-0.032048
-0.27497
0.48806
-0.06812
0.020756
0.29801
-1.5707
-0.058321
0.17876
1.062
-0.085549
-0.061689
-0.369
-0.014079
-0.9878
0.27235
-1.5586
0.0088561
0.13302
0.052862
0.060834
0.022746
0.013055
-0.15326
-0.058385
0.88085
-0.016513
0.14998
-0.14934
0.70049
0.16775
0.12405
0.30557
-0.65461
0.036997
0.10962
-0.93457
-0.0011558
-0.16497
0.033949
0.12299
0.033728
0.38321
-0.08626
-0.0016268
-0.067763
0.39889
-0.059748
0.12332
1.6305
-0.13071
-2.8106
-0.43391
-0.029161
0.51101
0.037966
-0.99842
0.014894
0.11077
0.052657
0.39751
-0.12285
0.016689
-0.15491
-0.060917
0.59781
-0.006507
0.12107
-0.098219
-1.6189
0.13993
0.13259
0.3856
1.3775
0.041099
0.025282
2.6551
-0.033413
-0.21312
0.08098
0.22696
0.048192
0.15493
-0.17463
-0.0086339
-0.1936
0.16679
-0.090548
0.15768
-1.2986
0.056571
1.5566
1.7082
-0.035529
-0.28409
0.20962
1.7981
0.0022753
0.067019
0.045986
1.5787
-0.053257
0.067398
-0.0979
-0.039007
0.69632
-0.0049629
0.12763
-0.24351
2.8602
0.17174
0.1325
0.46183
-0.32301
0.029834
0.0795
-0.74639
-0.0067722
-0.15312
0.10279
-1.108
0.047537
-1.605
-0.11265
0.05515
-0.010284
0.34939
-0.28911
0.085066
-0.82552
0.26625
0.98802
-0.39677
-0.010582
0.55377
0.041848
0.78716
0.037573
-0.14709
0.060708
-2.0636
-0.13691
0.012001
-0.12125
-0.040247
-2.7791
-0.0090795
0.10104
-0.26174
-1.6031
0.15946
0.11903
-1.2934
-0.012789
0.052602
0.068864
-0.60497
-0.022416
0.17688
0.072519
0.48047
0.042824
0.032186
0.34356
0.60342
0.013014
-0.10464
-0.19031
0.012004
-0.12856
0.25128
-0.50545
0.2054
-0.13876
-1.1904
0.1354
-0.088704
0.20475
-0.020717
0.15682
-0.51897
-0.50547
0.21711
0.93878
0.063082
-0.34287
0.20118
0.31304
-0.063305
0.2058
-0.21955
-0.24321
-0.14464
0.11634
0.39734
-0.49173
0.44716
0.89637
0.21285
0.44885
0.34856
0.45578
-0.21984
0.32432
0.24259
-0.33163
-0.28445
-0.30646
0.24216
0.44428
0.0846
0.26874
0.17762
-0.22252
1.3592
0.51763
0.12486
-0.39171
-0.14992
0.20828
0.22997
-0.42327
-0.2179
0.59864
-0.20977
-0.33387
0.2375
-0.26872
0.049456
-0.064448
0.57876
-0.23126
0.085608
-0.25851
0.41492
-0.14218
-0.44039
-0.4708
-0.57927
0.61155
-0.47952
-0.11895
-0.19696
0.29958
-0.23116
-0.90647
-0.37231
-0.36888
1.7767
0.12748
-0.086792
-0.36717
0.14779
-0.16849
-0.29098
0.35624
0.045395
-0.046108
0.035449
-0.057179
-0.058241
0.32101
0.22009
0.70806
0.3462
-0.020199
0.22936
0.35954
-0.27769
0.11615
-0.13501
0.18606
0.1425
-0.11373
0.032279
1.0449
0.30491
-0.57753
-0.1009
0.2921
0.040069
-0.29024
-0.21659
0.39478
0.4141
-0.33591
0.017574
-0.26431
-0.015962
-0.031809
0.060229
-0.12889
0.28705
0.55136
0.58525
-0.037613
-0.32
0.28044
-0.26126
-0.5743
-0.49421
-0.5566
0.35547
0.63403
-0.066211
-0.4919
0.13645
0.33266
-0.19354
0.13915
0.50417
-0.3503
0.037094
0.032562
0.066163
-0.28887
-0.54394
-0.51141
-0.12913
0.44609
-0.10429
-0.23938
-0.057509
-0.27479
0.40809
0.41657
0.22135
-0.27178
-0.35203
0.32404
0.30012
-0.061364
0.27554
0.20718
1.2191
-0.18254
-0.0054405
-0.15241
-0.25564
0.33325
-0.0050601
-0.55304
0.1757
-3.1711
-0.096834
0.21919
0.18606
0.40066
-0.24633
0.31048
-0.24892
0.2814
-0.14857
0.21982
-0.0049511
-0.38227
0.25365
-0.53184
0.090269
-2.9459
-0.40228
-0.2166
-0.41465
0.51306
-0.062163
-0.33504
0.13573
-0.26787
0.50267
0.039769
-0.060859
-0.43236
0.21319
-0.1395
0.86364
-0.10335
0.14616
0.13732
-0.098047
0.29269
-0.09994
-0.36215
-0.64032
0.67288
-0.19284
0.21063
-0.39582
0.29375
0.016167
0.29625
0.70529
0.10655
0.020285
0.21941
-0.24235
-0.16752
-0.34999
0.82913
0.01436
0.46182
-0.44546
-0.2114
-0.16772
0.077235
-0.47911
0.44117
-0.16298
-0.20352
0.084038
0.03475
-0.0015681
-0.15672
0.28782
-0.16138
0.84672
-0.048805
-0.058969
-0.4388
0.15884
-0.28423
-0.28695
-0.33673
-0.035964
0.64595
-0.21987
0.16356
-0.44531
0.19334
-0.25925
-0.024747
-0.29109
-0.36252
-0.27202
0.18468
-0.28761
-0.32342
0.10355
-0.52458
-0.38883
0.44668
-0.15011
0.29479
0.0076133
0.34289
0.20882
0.1661
0.24236
-0.0058718
0.4524
-0.16948
-0.14701
-0.33171
0.22889
0.31405
-0.34243
0.39759
0.0034076
-0.50195
0.14793
0.19463
-0.45273
-0.33299
0.23919
1.0459
0.40288
0.23645
0.17622
0.061258
-0.036112
-0.33591
-0.096374
-0.42208
-0.25698
0.13935
-0.35768
-0.39291
0.0077588
0.85768
-0.07936
0.61416
-0.51979
-0.25484
-0.20209
0.046772
0.10637
0.14366
-0.23186
0.04986
0.14262
-0.078266
0.25407
-0.29225
0.30636
-0.17004
-0.16195
0.31996
-0.5344
0.15821
-0.17407
0.23788
-0.29474
-0.26436
1.1915
-1.9213
0.3918
-0.1769
0.26231
-0.05789
0.06554
0.23763
0.60014
-0.11885
-0.23783
0.43591
-0.45808
-0.047062
-0.21687
-0.57567
-0.35518
0.45271
-0.29374
0.31658
-0.13983
0.17567
0.21164
0.46597
0.22773
-0.10244
-0.20479
0.2564
-0.19343
0.6152
0.25892
-0.20084
0.18374
-0.15158
-0.13644
0.098655
-0.013961
-0.52151
0.18164
-0.67941
1.0092
0.2837
-0.22122
-0.021707
0.23935
-0.33674
-0.24124
0.29457
-0.24663
0.30891
-0.23031
0.28439
-0.2296
0.12043
0.13284
0.79795
-0.47998
0.68112
-0.2271
-0.20961
-0.17472
0.58855
-0.16171
-0.21791
-0.46298
0.10764
0.44071
0.0082715
0.20362
-0.12962
0.31038
0.49508
-1.0636
0.19258
-0.21363
0.19184
0.16486
0.20628
0.24698
2.5108
-1.581
1.2562
-0.28101
0.37685
0.10642
-0.24371
-0.0086966
-0.081675
-0.13848
0.13093
-0.22738
0.26285
-0.23542
-0.69134
0.20898
-0.57761
0.35731
0.23425
-0.20587
0.30084
-0.46982
-1.4818
-0.66878
-0.15883
0.1924
0.024523
-3.0965
0.49377
-0.067312
-0.35789
0.13682
-0.005678
-0.60707
0.046144
-0.2507
0.23755
-0.15342
0.11175
0.069432
-0.33788
0.18091
-3.7485
-0.19482
-0.30562
0.094186
-0.1706
0.033234
-0.2772
-0.1879
-0.33754
-0.16208
0.14067
-0.17741
0.4493
-0.09866
0.66877
0.75641
-1.8222
-0.068614
-0.18591
-0.21104
0.2828
0.44508
0.13638
-0.21336
-0.00054922
0.058697
0.051273
-0.031492
0.36534
0.28553
-0.051604
-0.81315
0.08763
-0.24049
0.30329
-0.22328
0.18066
-0.25019
-0.422
-0.30281
0.59214
0.40449
0.10465
-0.4757
-0.39489
-0.26919
0.035279
-0.33135
-0.1895
-0.21856
0.31033
0.0039907
-0.95893
-0.24603
-0.52808
-0.31994
0.44001
0.38573
-0.27445
0.5284
-0.010154
0.071717
-0.19633
-1.6647
0.12823
-0.0075563
0.87712
0.00013894
-0.15284
-0.46627
0.0089957
0.0081747
-0.060392
-1.5452
0.034569
-0.34845
0.072545
0.1024
0.044076
-0.028589
-0.26436
-0.024862
1.0195
-0.10744
0.14916
0.055206
0.7274
0.12879
-0.15265
0.24001
-0.76219
-0.11598
0.16317
-0.80241
-0.03691
0.086547
0.19079
0.54658
0.0075814
0.19557
-0.1487
0.089806
0.065193
0.48176
-0.22262
0.054465
1.6556
-0.10821
-2.81
-0.47077
0.0059179
0.10711
-0.20106
-0.63673
0.0326
-0.11792
0.059279
0.43079
0.092352
-0.082471
-0.15309
-0.018806
0.67649
-0.097554
0.13051
0.1858
-1.7061
0.11675
-0.15188
0.44741
1.4012
-0.10463
0.14143
2.659
-0.032836
-0.019734
0.1199
0.36504
-0.017778
0.32644
0.0064416
0.026074
0.10014
0.65624
-0.096525
0.058411
-1.7025
-0.061722
1.5388
1.8394
0.015824
0.15143
-0.071281
1.719
0.030747
-0.11038
0.059826
1.6003
0.025462
-0.044317
-0.15446
-0.016844
0.81361
-0.10023
0.12275
-0.1798
2.86
0.099327
-0.15548
0.21446
-0.30229
-0.095016
0.23072
-0.69728
-0.034868
-0.22321
0.146
-1.0749
-0.0083049
-1.3153
-0.11135
0.11078
-0.21227
0.39588
0.1486
-0.0029828
-1.0028
-0.081122
0.91047
-0.3799
0.023418
-0.0097545
0.26748
0.64671
0.036987
-0.23308
0.082331
-2.1542
-0.0010581
-0.087644
-0.16552
-0.035681
-2.5937
-0.1202
0.13832
-0.030962
-1.6452
0.095304
-0.16706
-1.6376
-0.014302
-0.10087
0.052817
-0.86371
-0.020112
0.21405
0.13431
0.44456
-0.0057434
0.062846
0.27628
0.38314
0.57768
0.58793
-0.29113
0.51875
0.0048479
-0.14209
0.17474
0.22107
-0.23026
-0.82847
-0.091251
-0.2923
0.22411
0.14385
0.1064
0.11511
-0.57036
0.22862
-0.044065
0.044124
0.53695
0.12732
0.32243
-0.34898
0.60386
-0.29497
-0.23134
-0.22033
0.22718
0.45388
0.20347
-0.096687
0.83293
-0.75773
0.30661
0.15823
0.45518
-0.33573
0.42265
-0.0087375
-0.845
-0.08511
-0.13091
0.32669
0.44351
-0.12464
0.51613
0.17779
-0.23481
1.253
0.11873
-0.16994
-0.41782
-0.18915
0.21026
0.62849
-0.393
0.31891
-0.19429
-0.27324
-0.23984
0.17035
-0.25407
0.098842
0.05234
0.53582
-0.16315
0.11627
0.016982
0.4021
0.48205
-0.17149
-0.55184
0.16284
0.020021
-0.38242
-0.11826
-0.091823
0.42998
-0.59461
0.17058
-0.31041
0.039217
-0.56572
0.44198
0.28242
0.22
0.19047
-0.22311
-0.21664
-0.16722
-0.31618
-0.076508
0.15028
-0.073732
0.12662
0.82729
0.29403
-0.36848
0.25506
-0.070056
0.18415
0.35743
0.0086598
0.20487
-0.29531
0.14999
-0.17656
-0.19791
0.081273
-2.2215
0.53131
-0.56443
0.20859
-0.19238
-0.49326
-0.14881
-0.32699
0.45209
0.20304
-0.33764
-0.28491
-0.17988
0.39555
-0.034891
0.22127
-0.20187
0.26765
0.45883
0.88627
-0.026254
0.1387
0.27594
0.096372
-0.5276
-0.13858
-0.49434
-0.44019
-0.21013
-0.16157
-0.086641
0.12835
0.31548
-0.24271
0.31156
0.4549
-0.30532
0.14376
0.075059
0.14361
0.31486
0.3469
-0.56464
0.16571
0.36831
-0.2431
-0.18674
-0.35571
-0.61272
0.59643
0.40597
0.32774
-0.037938
0.9454
0.038845
0.23706
-0.23174
0.27621
0.33666
1.4636
0.34703
0.12395
-0.21902
0.10623
0.22113
0.13749
-0.52021
-0.7189
0.72024
-0.14758
-0.25364
0.011139
0.3412
-0.22227
-0.35831
-0.23585
0.41328
0.11638
0.1076
0.10772
0.45254
0.16577
-0.5267
0.55535
-3.2608
0.18154
-0.11919
-0.1805
0.12695
0.056423
-0.61209
-0.48905
0.021631
0.22914
0.40167
0.23017
-0.40597
0.34335
-0.12681
1.0291
0.13809
0.092462
0.17816
-0.17153
0.28902
6.6398e-05
-0.20544
0.1046
-0.24608
-0.28739
-0.1897
-0.46325
0.28911
0.072627
0.38766
0.61256
0.24211
-0.17798
0.33234
-0.16469
0.16752
0.35111
0.7621
-0.25918
0.055265
0.16398
-0.24655
-0.43372
0.29932
-0.20091
0.016373
-0.37649
-0.25282
0.20149
0.45177
0.1313
-0.29806
0.25484
-0.22107
0.98162
-0.13359
-0.55376
-0.43218
0.15137
-0.33023
-0.40642
-0.17943
-0.32779
0.089764
-0.30481
-0.063469
-0.43437
0.17737
-0.14697
-0.18555
-0.34791
-0.31208
-0.044222
0.19445
-0.23524
-0.089852
-0.027858
-0.56444
0.12265
0.26183
0.21417
0.29299
-0.0055613
0.34928
0.094466
-0.77077
0.16742
0.1132
0.25013
-0.023386
0.25505
0.0024441
0.30738
0.29745
-0.67973
0.27168
0.075567
-0.46748
-0.23008
0.16914
-0.057077
-0.3435
-0.027944
-0.29116
0.31919
-0.28537
0.15852
0.044878
0.0033353
0.22226
-0.1624
-0.35602
-0.21589
0.32223
-0.29642
0.70846
0.1493
0.81509
0.022822
0.16156
0.2225
-0.22079
-0.086187
-0.29669
-0.0077885
-0.07284
0.1483
-0.011903
0.44633
0.000826
0.14424
-0.26326
0.29338
-0.24423
-0.081971
0.069763
0.076594
0.17607
-0.17255
0.029058
-0.33086
-0.63917
-0.68924
0.23783
0.45511
0.16769
0.20301
-0.11528
-0.023461
0.050926
0.5645
-0.072086
-0.12666
0.18299
-0.37438
0.022111
0.77271
-0.57689
-0.11284
0.4373
0.019255
0.35005
-0.035605
0.049752
0.26927
0.03466
-0.14958
0.14969
0.38953
0.30331
0.11649
-0.24689
0.30196
-0.24809
0.19442
0.20596
-0.16307
0.099471
-0.15691
-0.52341
-0.18675
-0.36495
-0.83247
-0.12938
-0.2677
-0.15146
0.17304
-0.34525
0.09846
-0.00077858
-0.3207
0.30437
-0.033521
0.25295
-0.16752
0.81815
-0.015176
0.71088
0.019305
0.12994
0.18452
-0.16809
0.014988
0.50374
-0.033849
-0.48223
0.028011
0.17071
0.16437
0.092073
0.18856
0.27593
0.20082
0.37274
-1.054
0.14517
-0.25185
0.16746
-0.26291
0.24354
-0.80837
2.5918
2.494
-0.5194
-0.35285
0.093876
0.12998
-0.13114
-0.018138
-0.18836
-0.2529
0.11488
-0.27933
0.28095
-0.25459
-0.11008
-0.038492
-0.64184
-0.15758
0.069078
-0.30498
0.25105
-0.06595
-1.0511
-0.43005
-0.21376
-0.29208
-0.27527
-3.2958
0.17756
-0.15307
0.041165
0.27276
-0.028142
0.17867
0.21162
-0.29453
0.27259
-0.29858
-0.019021
0.079557
-0.24362
0.1759
0.33967
-0.28191
-0.56296
-0.010558
-0.25943
0.052223
-0.029251
-0.23182
-0.44788
-0.13681
0.30861
-0.11583
-1.3867
0.38719
0.6211
-1.5249
2.4147
-0.099751
-0.11376
-0.28846
0.27153
0.41785
0.33881
0.15155
-0.090655
0.59292
-0.082057
0.16577
0.49712
0.24669
-0.1308
-1.0359
-0.15389
0.17346
0.35503
0.13104
0.11297
0.039932
-0.55555
-0.064443
-0.16503
0.37814
0.013463
-0.48357
-0.41599
-0.17198
0.00655
-0.37065
-0.14641
0.19813
0.24948
0.087863
0.48238
-0.20977
-0.6096
0.037059
0.36056
-0.063657
-0.24372
0.57445
0.019722
0.2245
-0.15324
0.66901
-0.18385
0.16372
1.3822
-0.18295
-0.082551
-0.27541
-0.073936
0.38863
0.34829
-0.62754
0.068076
-0.0068701
-0.11691
0.055662
0.050397
-0.043498
-0.14716
0.029179
0.41431
0.0022891
0.042583
-0.12221
0.41844
-0.037701
0.011213
0.20177
-0.69609
-0.081877
-0.091575
-0.5325
-0.15854
-0.1374
0.010681
-0.61019
-0.13281
0.5435
-0.037395
0.22782
-0.10903
0.018794
-0.0643
0.138
1.0658
0.060198
-2.6166
-0.39187
-0.081969
-0.078469
0.049396
-0.92669
0.045339
-0.29092
-0.11618
0.30748
0.064579
0.011546
0.034578
0.027321
0.65986
-0.0086462
0.064839
-0.1925
-1.7566
-0.068567
0.0088773
0.40756
1.534
-0.079386
-0.035955
1.3509
-0.12259
-0.13234
-0.040498
-0.52699
-0.13332
0.31995
-0.015104
0.20674
-0.11932
-0.50565
-0.014248
0.094554
-1.3664
0.26947
1.7101
1.7979
-0.079502
-0.27906
-0.15218
1.6623
0.060514
0.1045
-0.10713
1.5374
0.087537
-0.07348
-0.086195
0.01402
0.62985
-0.012471
0.043171
-0.042453
2.7247
-0.042289
0.010884
0.2543
-0.19785
-0.084657
-0.023394
0.072022
-0.10873
0.48272
0.036822
1.9232
-0.14085
-1.4083
-0.004708
0.19455
0.083695
-0.36594
-0.22472
0.1951
-1.2159
-0.034127
1.114
-0.35656
-0.071465
0.039176
0.01494
-0.26229
0.055766
-0.056197
-0.089193
-2.2471
0.15707
-0.00089606
-0.024488
0.014012
-1.124
0.0016428
0.038792
-0.24249
-1.6667
-0.014969
0.011349
-1.3942
-0.01679
-0.098157
-0.12842
-0.3481
-0.097785
-0.16206
-0.020644
-0.56032
-0.12435
-0.17191
0.35563
-0.90276
0.13897
-0.18514
-0.026452
0.40773
0.00032616
0.042139
0.36328
0.24659
-0.17278
-1.3373
0.22201
-0.17398
0.15357
0.086618
0.20652
-0.39
-0.50437
0.33274
-0.31865
0.036117
-0.42867
0.16543
0.36897
-0.1866
-0.26251
-0.35765
-0.15615
-0.1148
0.12744
0.51516
-0.53744
0.1733
0.86735
-0.56799
0.4633
-0.39101
0.45582
-0.15851
0.15185
-0.84133
-0.025227
-0.18165
-0.14975
0.58637
-0.049016
0.22831
0.31812
0.11249
-0.24299
1.0486
0.20861
0.025083
-0.53278
-0.19338
0.24916
0.54686
-0.40775
-0.050313
-0.31958
-0.17466
0.082568
0.22029
-0.2094
-0.080274
-0.40268
0.43674
-0.13806
0.0078629
-0.037149
0.47632
-0.19463
0.098861
-0.48197
0.23485
0.34975
-0.1151
-0.14183
-0.23319
0.30819
3.6902
0.80494
-0.01195
-0.20107
-0.73452
0.46814
0.27418
-0.40465
0.25765
-0.31802
-0.33781
0.0050529
-0.20379
0.013937
-0.352
0.0058673
-0.034254
0.72481
0.03371
-0.32957
0.34215
-0.41721
0.26405
0.44219
-0.24645
-0.046636
-0.36708
0.18709
-0.2338
0.13928
0.11649
1.3545
0.061333
-0.49668
-0.24608
0.091771
0.88197
-0.29259
-0.42352
0.21774
-0.99378
0.10988
-0.071295
0.12048
0.54299
0.22033
0.26019
-0.23725
0.20146
0.51329
0.81693
0.1831
-0.45096
0.20998
-0.18962
-0.57058
-0.2009
-0.21795
0.32148
-0.28794
-0.1098
-0.29219
0.11193
0.35349
-0.026747
-0.11016
0.40054
-0.2976
0.10396
0.022576
0.15544
-0.091017
0.33167
-0.52614
-0.4683
0.61219
-0.11364
-0.23074
0.0083449
-0.92869
-0.67092
-1.1945
-0.1714
-0.156
0.53014
0.048283
0.067467
0.24815
0.36868
0.35845
1.5632
-0.012476
-0.22566
-0.29469
-0.33306
0.2548
0.1882
-0.41138
0.5506
0.8009
-0.048556
-0.089485
0.064452
0.37589
0.038556
0.027813
-0.3275
0.4843
-0.3467
-0.0095213
0.1116
-0.50012
0.071257
-0.51314
0.68096
-3.1071
-0.25046
-0.10548
-0.46111
0.24721
-0.032463
0.14851
-0.20927
-0.029141
0.40235
0.26665
-0.118
-0.23294
0.32964
-0.17266
0.95788
0.17669
0.025341
0.090154
-0.13877
0.31544
-0.27102
-0.28216
0.46807
-0.41511
-0.18693
0.050432
-0.41163
0.3404
0.13333
0.12833
0.53446
0.21932
-0.062619
0.29059
-0.16736
-0.11191
-0.055045
0.77411
0.081483
0.19547
-0.37632
-0.21491
-0.29909
0.02106
-0.67781
0.6194
-0.054931
-0.29152
0.37066
0.10528
0.063468
-0.15566
0.25385
-0.21438
0.74604
0.29149
-0.16751
-0.46849
0.10518
-0.32237
-0.26942
-0.42031
0.37361
0.045065
-0.23789
-0.074358
-0.4341
0.27202
-0.056415
0.27751
-0.34135
-0.24993
-0.21153
0.12218
-0.25457
-0.13296
-0.12826
-0.56253
-0.32187
0.6538
-0.30354
0.28013
-0.25486
0.27081
-0.78579
0.097311
0.12651
0.19281
0.33545
-0.040693
0.063859
-0.14954
0.30864
0.33507
-0.3193
1.624e-05
0.16711
-0.53561
-0.09763
0.23969
-0.14059
-0.28694
0.40661
-0.42469
0.37894
-0.43175
0.17084
0.097925
-0.1452
0.14653
-0.19123
-0.32807
-0.063213
0.30872
-0.28106
0.066297
0.11619
0.7918
0.038831
0.46745
-0.12756
-0.21721
-0.19975
-0.38751
-0.65701
-0.19778
0.31536
0.1793
0.5551
0.18159
0.22213
0.30604
0.3129
-0.24654
-0.14358
0.18159
0.044272
0.12032
-0.22982
0.081803
-0.092564
-0.33507
0.22777
0.26614
0.47761
-0.24588
0.21874
-0.064558
0.01754
0.081552
0.52407
-0.017996
-0.2814
0.30113
-0.35954
-0.38892
-0.018929
-0.54135
-0.23953
0.40214
-0.44064
0.35549
-0.48241
0.28597
-0.85219
-0.30806
0.19001
-0.2708
0.41956
0.44176
0.2159
-0.0037505
0.37418
-0.24123
-0.19811
0.26301
-0.2069
0.051767
-0.28129
-0.48749
0.13579
-0.43032
-0.16983
-0.095206
-0.18735
0.27877
0.24767
-0.33362
0.0036762
0.020723
-0.38677
0.42639
0.073446
0.10618
-0.13276
-0.086376
0.40819
0.70828
-0.61268
0.63513
-0.1151
-0.21533
-0.00037435
0.62311
1.4409
-0.10424
-0.0085789
-0.14175
0.26169
0.18332
0.2899
-0.30083
0.3717
0.54662
-1.202
-0.23984
0.25221
0.14367
-0.2601
0.27395
0.38603
2.6568
-1.6872
-0.99167
-0.27723
-0.34712
0.1772
-0.21375
-0.31176
-0.11264
-0.36727
0.29899
-0.48417
0.30692
-0.1507
-0.17372
-0.20029
-0.54573
0.59977
0.39696
-0.089631
0.35537
-0.10836
-1.8218
4.0544
-0.72146
-0.18552
0.15656
-3.4825
0.024964
-0.18928
0.37271
0.25899
0.094189
-0.027967
0.385
-0.35713
0.25038
-0.18802
0.20045
0.19756
-0.45033
0.51506
1.2866
-0.27003
0.041764
0.17478
-0.24394
-0.20546
-0.30971
-0.26989
-0.27832
-0.25831
0.22134
-0.080424
0.28029
-0.06643
0.7236
0.62963
-1.4044
0.0713
-0.20874
-0.30898
0.19919
-0.88097
-0.29185
0.065506
-0.21315
0.40593
0.31803
0.087176
0.29348
0.25006
-0.069646
-0.81346
-0.079662
-0.44503
0.27327
-0.027225
0.1928
-0.20188
-0.55205
-0.20837
-0.3065
0.46467
-0.70502
-0.4998
-0.32119
-0.074094
-0.053387
-0.42722
-0.097781
-0.2071
0.10899
0.076664
-0.11593
0.25032
-0.5831
-0.62194
0.59254
-0.19678
-0.27314
0.38012
0.15953
-0.12422
0.16068
2.1339
-0.1878
0.11622
2.0204
-0.097619
0.084485
-0.26251
-0.17011
0.14678
0.15435
0.88512
0.058927
-0.21965
0.038546
0.028758
0.14354
0.061264
-0.11983
-0.044867
0.28205
0.0072004
-0.16336
-0.1689
0.01273
0.04823
-0.060156
0.1777
-0.70784
-0.099042
-0.017592
-0.38121
-0.044609
0.024178
0.24488
-0.32184
-0.076203
-0.14487
0.03889
-0.080069
-0.23838
-0.50332
-0.0017271
0.16203
0.21104
-0.185
-0.10716
-0.36622
-0.18978
0.17053
-0.35179
-1.178
0.043481
0.19219
0.060641
0.16765
-0.015553
0.060504
-0.10152
-0.046585
0.42372
-0.0027577
-0.164
-0.156
-0.031167
0.031425
-0.062958
0.47755
1.5753
-0.093504
-0.18303
1.0692
-0.031236
-0.33067
0.24911
-0.16737
-0.095051
0.6848
0.10576
-0.050088
0.379
-0.95126
-0.16354
0.20704
-0.37286
-0.16755
-0.10245
2.0065
-0.17644
0.034194
0.31808
0.76729
0.044387
0.098219
0.038071
-0.032028
0.089653
-0.0063685
-0.094516
-0.040801
0.40635
0.0068273
-0.13491
0.20813
0.0070808
0.056512
-0.06022
0.0090332
-0.55404
-0.10965
-0.09667
0.067549
-0.0097327
-0.06168
0.1505
0.1766
-0.080242
-1.2265
0.062674
-0.11598
0.050124
-0.79648
-0.18563
0.16086
-1.476
0.083512
-0.12596
-0.38732
-0.15509
-0.5993
0.091277
-0.42465
0.046297
-0.031376
0.050988
0.15871
-0.050016
0.0042676
-0.07635
-0.060266
-1.153
0.013205
-0.13007
0.1459
-0.17391
0.081398
-0.07468
-1.5906
-0.15591
-0.10633
-0.042758
-0.095412
-0.038102
-0.37055
0.20878
-0.14198
-0.084983
-0.11075
0.03067
0.59203
-0.02456
-0.4843
-0.24682
0.36328
0.1395
0.096413
-0.32702
0.12563
-0.1579
-1.139
0.23987
-0.53203
0.2431
0.045461
0.16689
-0.32333
-0.51607
0.0069659
-0.4652
-0.017044
-0.18838
0.13707
0.29343
0.026227
-0.11792
-0.37621
-0.16374
-0.32126
0.21132
0.47012
-0.15506
0.12626
0.87529
0.25295
0.39048
-0.27931
0.44649
-0.27032
-0.38919
0.22731
-0.29293
0.025918
0.17159
0.53279
0.031254
0.010278
0.47842
0.0723
-0.24677
1.0842
0.15698
-0.19572
-0.38369
0.016155
0.226
0.45583
-0.51261
0.4853
-0.24281
-0.25616
0.019193
0.18914
-0.26107
-0.28389
-0.14532
0.47418
-0.08642
-0.051316
-0.10344
0.3685
-0.59097
0.05967
-0.55617
0.15861
0.40525
-0.31271
-0.17564
-0.32441
-0.53322
-0.67071
0.40912
0.28341
-0.26425
-0.6863
0.0087091
0.21272
-0.26093
0.14573
-0.22152
-0.26638
0.35768
-0.15215
0.0090752
-0.041829
-0.22379
0.13289
0.56736
-0.65459
-0.57154
0.36739
-0.072395
0.044706
0.30818
0.10727
0.24219
-0.25359
0.16469
-0.15485
0.012041
0.052147
1.6097
-0.098206
-0.5391
-0.17561
1.5225
-0.090054
-0.17698
-0.52135
-0.40221
0.53079
-0.091104
-0.58037
-0.051938
0.44313
0.11329
0.20018
-0.018444
0.27242
0.46916
0.91516
0.050517
-0.12124
0.31376
-0.1471
-0.53841
-0.11158
-0.63262
0.42025
-0.10012
-0.18847
0.0087211
0.079464
0.27556
0.13521
0.37108
0.4067
-0.27651
-0.13655
0.23298
0.084174
-0.11163
0.6439
-0.54167
-0.444
0.19292
0.012324
-0.2443
-0.069833
1.6133
0.79072
0.20356
0.040936
-0.072876
0.50104
0.027276
-0.10621
-0.29527
0.14738
0.31715
1.4458
0.4919
0.1279
-0.17504
-0.21785
0.27274
0.034909
-0.57975
0.61303
0.6986
-0.16312
-0.038785
0.019802
0.37263
-0.28575
0.40952
-0.3145
0.45197
-0.40487
-0.026373
0.052177
-0.31042
0.088112
-0.56886
0.011127
-2.9776
-0.36495
-0.19574
-0.062793
-0.76476
0.18538
-0.1257
0.18588
0.10225
0.38192
0.035682
0.078854
0.007932
0.36655
-0.11636
1.0627
0.067435
-0.28139
0.19217
0.11292
0.30731
-0.090029
-0.21514
0.38015
-0.31507
-0.30529
-0.15117
-0.45526
0.25678
0.19457
0.02734
0.55455
0.26317
-0.12046
0.17906
-0.22694
-0.18862
0.18302
0.80515
-0.16966
0.74972
-0.34681
-0.26953
-0.09221
-0.50021
-0.039629
-0.29093
0.15421
0.14281
0.37149
0.074513
0.19195
-0.072097
0.25058
-0.21879
1.0944
0.081756
-0.098948
-0.35156
-0.093711
-0.29808
0.051863
-0.37468
0.66668
0.19247
-0.31916
-0.19162
-0.4334
0.10896
-0.26428
0.29735
-0.39347
-0.29589
-0.25308
0.32332
-0.27977
-0.04792
0.23578
-0.53144
0.018055
0.38467
0.21527
0.26484
-0.27399
-0.83937
0.25581
-0.27842
-0.096908
-0.091305
0.36368
0.018842
-0.19633
0.29417
0.22483
0.33807
-0.53484
-0.10884
0.023632
-0.47184
-0.18734
0.22667
-0.10783
-0.4089
-0.069211
-0.62787
0.32211
-0.049648
0.11898
0.042901
0.009083
0.18065
-0.21212
-0.31029
-0.072619
0.11085
-0.32807
-0.41221
0.18797
0.79621
0.045281
0.44276
-0.16633
-0.27412
-0.14991
1.2213
0.14258
0.05994
0.011096
-0.011905
0.342
0.16822
-0.074595
-0.26816
0.2179
-0.24197
0.039914
0.10664
-0.0006545
0.16324
0.06295
0.10057
0.24313
-0.51396
0.25699
0.15142
0.31014
-0.10708
0.26833
-0.16684
-0.27669
0.28441
0.49735
-0.0096907
-0.27141
0.32422
-0.42559
0.087599
-0.43655
-0.56104
0.10041
0.090173
0.24339
0.31921
-0.16043
-0.41323
0.80435
0.034163
-0.069319
0.11586
0.56843
0.004629
0.14274
0.044891
0.24667
-0.25779
0.18014
-0.25534
-0.257
0.099817
-0.17502
-0.56521
0.092511
-0.34719
-0.12239
-0.13306
-0.30223
-0.44761
0.20617
-0.35357
0.15409
0.15395
-0.37008
0.41989
-0.46305
0.38855
-0.22318
-0.71149
-0.16468
0.75789
-0.24898
0.42073
-0.35987
-0.24592
-0.39902
-0.92627
0.018197
-0.61434
-0.0071078
0.17976
0.44592
0.079503
0.24548
0.17453
0.24079
0.48293
-1.5374
-0.070967
0.089152
0.22244
-0.27898
0.28023
-0.30791
2.2762
-1.6281
-0.91759
-0.35383
-0.1411
0.052701
-0.25266
-0.19225
-0.33643
-0.25628
0.25165
-0.17181
0.43674
-0.23652
0.13709
-0.3076
-0.56032
-0.35787
0.38524
0.086038
0.28135
-0.13176
2.7078
-0.73436
0.34451
-0.33249
-0.041085
-3.2978
0.13608
-0.13961
0.35354
0.15357
0.11553
-0.037859
-0.17337
-0.26738
0.22664
-0.29422
0.072888
-0.25862
-0.18124
0.54614
1.4278
-0.28121
0.081784
-0.061459
-0.24727
0.049388
-0.10611
-0.24375
-0.23342
-0.43068
0.14095
-0.15119
1.0096
0.20334
0.61069
0.62228
-1.2258
-0.0798
-0.091797
-0.29836
-0.012777
0.45137
0.24
-0.18057
-0.2457
0.56255
0.19571
-0.06745
0.059795
0.28158
-0.093773
-0.94983
0.10053
-0.021272
0.34573
0.10976
0.16907
-0.1754
-0.51973
0.34685
-0.17696
0.36348
-0.23385
-0.49406
-0.41866
-0.1237
-0.41456
-0.44284
-0.13102
-0.27314
0.29433
0.030667
0.036974
0.137
-0.56474
-0.42662
0.51571
-0.17087
-0.27679
-3.8302
0.34033
0.45892
0.25091
-0.80906
0.92328
0.32791
-1.008
1.1291
0.63391
0.7959
3.0279
2.7099
1.9931
0.71713
-4.2066
1.9676
0.82961
-3.4147
-2.8935
3.0101
1.3223
-0.047257
-0.49816
2.3296
-0.45693
-2.1963
-0.84875
-0.22404
-0.036188
4.5936
1.3865
-0.6658
-2.0036
3.0479
0.77769
-3.6634
-5.5743
0.52871
-0.081452
-1.6688
-0.28474
1.6762
-0.78055
-0.98521
0.98302
1.3353
0.20028
1.4115
-0.0083673
-1.3056
-1.1603
-1.1461
0.61779
-1.3305
1.3862
-1.2578
0.20278
0.54116
0.58295
-2.3607
0.80191
0.36144
0.44789
-0.67779
1.1749
1.2101
0.71128
1.3865
1.2456
4.5258
1.3116
-0.93596
-1.4601
3.55
0.53871
-4.9048
-2.66
-0.24539
0.20268
-0.98761
-1.0412
-1.4476
-2.7895
-1.0797
5.6731
-1.9248
-2.3485
4.7302
2.955
2.237
-0.2011
-0.99993
0.17829
1.7307
-0.11117
-0.3443
-0.44451
-1.566
-1.0624
-2.1264
-1.9803
-1.941
-2.0655
1.5407
2.393
-2.0398
2.3506
1.8177
1.4258
-3.567
-3.0631
-2.8935
-2.3581
-1.7329
6.7759
-2.3415
-2.0472
5.4375
4.7908
6.1702
0.77917
-2.2906
-4.2682
5.9427
1.3015
-6.7246
-9.0177
2.2717
1.4387
-0.080661
0.6701
0.97083
1.3375
1.6318
-4.8289
1.7551
1.8853
2.3832
-2.2575
3.1695
-0.58548
-0.96727
-1.4351
2.0801
-1.9164
0.03452
-0.22686
-0.1326
-0.41872
0.67672
0.72505
0.53568
1.2948
2.0208
-3.2065
0.85596
2.9117
-2.5933
-2.9094
-8.3702
-2.5867
0.68924
2.6796
-2.1086
-6.0884
5.2207
7.8051
0.025723
4.8169
-3.7983
1.1635
-0.16074
1.3405
-1.4302
0.65067
-0.14972
0.4917
1.861
1.5173
-6.5029
-1.4414
1.5249
3.3727
-7.021
-1.3134
5.7438
7.9199
-2.6811
-1.7243
-0.67704
-0.49629
-0.52069
-0.60211
3.0183
-1.5535
-0.60949
3.8087
-1.1914
-0.56405
-3.8489
-1.2412
0.89215
1.4879
-3.496
-0.588
4.6585
3.1616
-0.47061
-0.53126
2.3161
0.93961
-0.1946
-0.36243
1.598
-0.1073
-2.6559
-1.1767
-0.41212
-0.12842
-4.3054
-1.5782
0.20222
1.4277
-3.1514
-0.12912
3.2636
4.6564
0.0011291
0.070822
6.4433
1.033
-2.0184
-3.8471
6.5841
0.016105
-5.9869
-8.3021
4.8637
-1.1561
-0.32299
-0.20677
-0.23873
1.7959
0.57945
-1.3044
0.11466
2.0725
-1.2374
-0.69422
-8.0001
-2.2241
1.1339
3.0534
-4.3634
-2.4393
5.8481
7.9859
-1.7508
-0.69667
-9.3814
-3.1353
0.07311
2.1056
1.2248
-2.8418
4.237
7.5673
3.3278
-0.79905
-2.6881
-0.69274
0.27936
1.2121
-1.5389
1.7632
0.53034
-0.21779
1.512
-0.049074
0.39892
0.21103
0.25786
0.018465
-3.8914
3.8149
0.24549
-4.8616
2.6116
1.4757
6.3432
1.8418
-0.7454
-2.2395
3.7007
3.7444
-4.4303
-6.1279
2.0066
-5.6102
7.0701
1.1689
-2.1407
-4.2208
7.8771
0.72073
-6.6662
-9.0046
4.4021
2.3783
2.6978
0.37587
2.7383
1.317
0.54397
-4.2885
2.1759
1.0199
-2.7094
-2.4971
-3.0221
-2.2455
-3.0143
-1.5843
0.98739
4.7253
-1.7757
-0.57415
2.5936
1.9769
11.017
3.9419
0.2958
-1.7312
-1.138
6.8417
-4.5251
-7.5028
-4.8439
-0.14156
-2.0154
-0.58447
0.4479
0.68882
-1.2707
0.64622
2.4315
1.3658
0.47041
-0.51119
0.94616
0.65358
0.64181
-1.4205
-0.21331
0.9931
0.39566
-3.534
1.7056
0.79017
5.0456
0.91087
-1.4526
-2.8436
4.2945
0.70371
-4.48
-6.0096
3.2364
1.63
-2.93
-0.02907
1.059
0.6879
-2.1379
0.72992
2.3994
-0.23623
1.2025
1.2879
3.4642
1.0595
-0.84147
-1.2255
3.1341
0.24886
-4.0896
-2.6864
0.32263
-0.62589
-0.67335
-0.62274
-0.78439
2.6061
-1.4527
0.54847
-0.93721
0.64521
1.2733
1.2524
7.9421
2.2124
-1.1213
-3.0994
4.2107
1.8707
-5.6989
-7.8471
1.9295
1.1872
